-19.6583368596449
-2.11725920987355
6.60263893502964
-15.8556875842518
-7.67426609660698
4.23765551000499
-7.75982297019912
6.56869471278459
4.9996150596482
21.2199264978925
-6.47815549860026
-3.90400406075584
-22.4356055421765
-22.9711172892038
8.84054938068134
-15.6870140755211
-25.79199602984
-23.0996916649772
-17.3659750058421
-13.1760611999523
-29.2719721731369
-7.11104769736016
8.29246173129606
-10.96350252334
-12.6502993268433
13.3778814565595
16.5601545824668
0.00393403199017929
1.00218001130521
31.0256299501713
-2.81366151595382
-2.97668352172882
-3.26240568845671
-2.6044305083597
-3.47089616932478
-0.593526638122276
-2.91905660224441
-2.75846966325872
-2.4194391427854
2.56786641530927
-29.1833051761681
-1.53642811000346
-14.0360301302306
-2.09437101219991
-3.56580553407408
3.36985145601309
-10.2453747589109
-12.5201420063479
-1.30220879972083
27.006572126399
-37.8712876157044
-9.3253343478444
-122.245146757631
-10.1008537498791
-19.4146309490672
-4.37752176789411
-13.3283293371904
-11.3194853755804
-4.39652101418336
28.2592456817827
-19.5742816967579
-8.92790692296019
-89.5764941770788
4.96217855220934
-4.34320150436951
11.7136895544339
11.0185893350102
15.2864406416833
9.61801721292028
18.0197982497185
-25.8161791914315
-1.86306455915175
-12.0647020656374
-1.49398336057764
-2.02188712392935
2.81701488725378
-6.81397470007689
-11.0697631195717
-1.14942613489956
24.9485944720032
-17.7212118993695
-2.65186651968553
-119.383625865513
-5.40506496168425
-3.57132322264775
2.60106837806607
-5.33380742443681
-11.2145935840759
-0.370500502586224
2.42445592062896
-25.6652991301487
-2.8515239574223
-12.0987541229062
-4.36470900262805
-1.50622324976539
-1.96628432370619
-12.3678960240896
-12.9889439483885
-2.21099564922658
21.6714730367315
-27.8453652705913
-4.09195462838763
-10.6056675725787
-0.68570847299981
-1.64236900266868
3.4764729867487
-6.43875254360372
-10.6163306681171
-1.23728365605443
7.80012361093715
-22.7659079899103
-4.38627105984304
-123.727866902626
8.8956706641772
-8.92276323493734
2.99512053631994
-14.5153013304341
-11.5025975690825
7.51113719577932
15.3436511699677
-20.4922579954125
-2.77798051162456
-2.99543066246866
-1.29750181677171
-9.22911184028716
-5.76489130353189
0.0762267290369258
0.562360399862747
4.71380579433149
-6.77890266979607
-5.41185596833622
-1.83964227647239
0.706296644547327
1.27154534201288
-5.86766219800897
-1.06163913023555
0.22070509698458
-1.06258254482713
-0.433793312764233
4.42915968492576
-71.3301748852432
-3.07171721697311
24.1182369843982
0.775932721793061
-14.7163928334355
4.4588670595655
0.574464587134223
-6.85956773461069
0.185188389736326
11.3050770029282
-7.75289954759299
-1.9889136567912
57.7463750983247
0.0384303581422119
-5.80129817651959
-4.02630422243892
-2.67285512895672
10.9123255298607
-1.80056631172312
7.61500907510196
-15.2154684444201
-1.25779525794911
-2.50958117133237
0.0897392193203822
-8.04223052554573
-4.92202853556211
-2.78205478652404
-0.493606233527764
0.317478233325024
-7.7522193082012
-40.3089272691854
-1.46509127219228
57.8128813831266
-0.195857529368426
12.0204879005125
30.9835453047598
-3.12110240440778
10.4848702975836
-1.57519824436591
8.84599129199574
-55.8042362073491
-0.381481776285639
-20.4899139833074
0.217699852741194
-15.5797600427519
3.54721931406773
-1.33395350911523
-8.41736095447058
5.63109775242806
12.0339269719234
-57.1609247002781
-4.76299154605433
-5.48777048521841
1.06346092674673
-6.36769310806988
-0.404454627486119
0.492131794101131
-7.80950772471503
-0.0503357368492128
-5.28342543553598
-46.3617933336279
-2.83914195332963
56.0080030700492
-1.35813298371849
-4.27971009104757
-0.764900783527308
0.419997338920121
10.1616160312935
-2.30750807841273
-2.38871371138523
-18.9952247886452
18.1532441771474
56.0056676071837
22.1338999938783
27.1607251228385
27.202088699347
-3.08402229655551
11.5798594844648
9.45548373531285
21.2319632696263
53.062679817964
69.6340937582908
1.84495298279605
-9.99462125060621
-21.8827663432478
18.3031077655398
20.7305584946238
74.6298828534618
5.8814456741054
-7.36169632454229
-17.1731065237511
22.2616878711763
40.713377367473
34.9569140008802
-6.43723916923698
5.7080903142954
-23.1628403892894
-0.571101810281737
5.88756357722795
2.69004104792996
2.2348291693497
15.5316757184209
44.7949825279861
7.26157614090627
3.96749751519918
-7.30757033020559
33.9351614412048
20.7051216578266
5.14448847224248
9.36540204577842
-14.8768172028393
-7.58268267929332
-10.4683979937285
12.0244608044978
13.1642087816439
-7.81216620099694
9.13527482905609
-11.105414687604
-7.96937063766188
15.5208537706295
-14.7143350786879
-0.761508699198309
-95.9790493479637
10.9566485562656
-0.801755350683694
10.4199492449181
11.0495283703269
10.3574880845471
12.8175153388222
20.4069065438461
-19.883598712107
11.7934124365729
49.1194928713752
20.0797989176619
27.325768653336
19.9872005614575
-10.7557556671888
6.96537836227129
9.15631195236101
15.7547861771421
