53.4984967393897
22.3055872036704
-41.5218463776708
-55.1849286450751
-38.0844258230017
-22.0187646717741
-20.3261321138339
-29.7391006846876
11.7215615570404
-10.8130825813328
-17.4976442843755
-40.4692565880588
-42.9789775910734
-11.1332315764249
-64.9207138346215
60.1899429886082
-70.4770874295188
-38.6418212387241
-42.1646341315046
21.2084592706152
15.8377627360671
64.600912599815
56.1692870422453
-26.4599235751817
-68.4743869430729
-24.6854823815267
-19.9663691923823
-58.8006560154655
16.6703748666135
-49.8291170241632
-53.3302872451187
-18.6482967134212
-28.9388985183432
0.319096608335118
12.8566979147267
-2.27955887779099
-35.5668341746858
-2.46966069497871
-63.3242888991053
8.98026943091152
-18.4846403702699
-23.0731490409654
4.22462554532697
14.6142345865211
2.04791496192927
12.6322397093589
1.93838788560242
1.61943203231239
8.90162571300774
43.1103009361848
-1.51023596408063
-3.17821960148242
4.98311799439927
2.76024407140198
-1.29698113384318
-27.4481047346093
-13.4259043316543
5.49556843170972
2.80646361111839
-0.735900447267132
0.821155298093805
18.403877100971
19.1166287297404
-5.05581746244628
28.4876038940943
-83.4382011542055
-13.2712357297008
-11.7427412471434
0.0752037486393217
-54.7793303558248
-14.7403630764625
-7.507394496635
23.3405584606154
6.07522222245354
4.49668209460851
-10.6951478060324
5.81018015110366
-12.6054047967646
-29.501391732964
-18.0872890758905
-0.925219413872846
44.038979690466
7.41395077713812
-3.55624836557057
-2.62311424955129
-0.159750494482926
39.2239556153517
-72.4609222391659
30.4444549532442
-14.7692293969269
3.5063008127465
-2.99918579102696
1.92278492764576
-1.23750356537737
-1.75536635518013
-9.30807376685071
-22.0942412059865
13.1272876162014
65.3651024808534
-1.70449437816695
-13.5441758549126
5.12160569879351
-9.19842730054908
-11.0644747026767
38.7502878158899
-43.7342650152582
1.39730772556999
-10.7362600654507
-1.21201753528405
0.210378099432812
-1.60136075905468
-4.99533187109333
-2.52003633748849
57.7901947768056
12.7654854212169
0.091507768773153
-4.51127236873943
39.3613873750827
15.2962900190891
-80.6714409847311
15.4552052057359
8.86529692455409
2.8562145787663
0.790827222354749
1.64764521600125
-5.33205625218614
1.28425356315721
-7.49512780290775
-12.5976636939753
49.7800235752106
73.2668070958418
-4.44653322478317
18.4632221284806
-50.9184212702808
-4.78838557435042
-24.2074474554524
23.889052616835
5.59889977287979
10.1983498169247
-16.1747305061079
8.62808492137181
-1.19981557391579
-4.09756993920202
-25.9078010356114
-1.86384934038011
72.0528283446627
21.268107752195
-2.63838902247658
-0.0954714167239587
-1.88960945899024
1.25034164631544
-63.6971075197347
31.739023102334
-14.3531809839562
2.12362498658416
0.26444898420916
1.52891049821256
-0.376952053168306
-5.66369582166947
-5.81741986293643
-9.84219822252099
13.9994164167278
-5.27166723606165
-3.87360526777092
-1.13211098702715
18.7446568221051
-3.18266179787517
-18.1557298237641
-14.7288756744582
-41.2079909693414
3.00073553316607
11.6914157552633
1.996933047845
-4.89384113314092
-1.84467458492345
-7.76257978075763
-53.5872861157242
45.2724793783632
-3.36900664038632
-1.62601099415588
-10.2871428491405
0.181498703309251
-2.91430848238774
-3.9966092659373
-3.43335664651796
22.2276984152786
-0.990274665047783
8.96163258454315
0.295226826031812
-7.45639173559744
-3.57093032331202
-4.92388200809179
1.45110707317034
-15.0591809526089
-58.5317108157826
-4.46755211493741
-8.83780042657767
-59.7731519903081
2.87673795147832
8.22901444065339
-74.5469799304396
-37.7890074958673
4.91836925950629
11.5151714473798
4.77263254145847
-10.0663760036153
20.6504871785138
50.1534818613266
-3.8286356269608
8.30279925085942
13.082502673356
-2.53782600695563
-2.19799593078067
-0.867160810199988
-8.78739027034509
-8.2482121531138
2.53296907544069
-46.2794839737659
3.04028094933427
-11.4310053090187
2.67631171368569
-3.59039007541073
-45.8212374349887
-8.28805967405961
-8.05279532023147
-52.5738637839945
54.7572626479439
-4.19099199623548
-2.31914524331743
11.3776084974697
-4.38649542454448
6.78005812558811
13.4474228667593
20.8125917851086
4.96159665902609
-5.86171431138132
3.26498880216279
-0.714463241969566
-7.3439014749222
-111.644724714288
-1.50576518650691
-28.0935314408611
-9.07557860144549
-1.44665507276908
-1.2245654860801
-1.26066894434279
-4.55373378518704
-4.03504057618124
34.5560437751687
17.0633624805948
1.14486139205136
17.1274629926847
0.204734084951756
-6.47061488106326
44.5987368654292
-65.5734453359968
-3.02948845491954
10.4477775360252
44.6784229319181
-3.18893627293116
-2.07052164613883
-1.93748171702432
-23.9018135565408
-4.58106713008492
-38.1552197338168
-39.188278888962
0.864924801774444
-14.8470704987522
1.02987946338695
-0.586045937509301
-2.47264946624949
-38.7126359171382
17.8568836851694
-30.437457603072
3.82556412989721
-3.5232498693093
52.3536005495167
1.25742262942322
-26.2712147977266
-0.897453300180896
6.40676565443667
-22.5383716420726
0.210661218418562
3.56181371603538
1.08271552582208
4.85692636588248
39.9167197986915
-20.4103037710018
-37.2738880585824
-30.1737027310002
15.0671225381534
11.2275363845629
-8.90649456605101
-48.4346261128622
7.66009796052566
-36.5304169130516
2.44001968708715
-8.36524141328297
-6.55178021045737
-1.98970693021573
-35.1594000761422
-0.621133582506814
10.4963103927094
-0.640445466344322
-20.458150857035
-24.746593975671
-27.807213460671
-6.04403575381869
-15.1701218030159
-25.9629946470281
25.5203486944751
4.59872587459842
-1.65438102868999
-25.6744927710891
13.8782695007195
-41.402893414294
4.82763399543283
7.81322577842259
116.777076346502
98.0359561618094
88.1538261096345
16.1792322817719
23.9598504051574
-1.72512703122159
23.094020001365
5.98415489213443
-1.88869413374014
-57.3658287664454
-61.1849756676962
36.5081972030545
8.48104615454227
19.1409679917927
-46.1879085330184
-0.90272418816102
11.1830310016254
43.5782415260452
7.217607992937
-12.5373627517209
52.8110232493302
-50.9127355667909
-26.0660903361124
-59.8143733080514
-41.1544235021772
-28.344367306042
-14.7199764043055
0.670844717032101
14.5031728763638
-21.8083750136003
-13.5729791347959
-7.63472104751734
-20.6694929938114
-7.622323719091
-23.8562515159717
31.7923379778251
12.6170622110485
-5.20150771846744
-11.2011125138846
51.672815276759
20.1328271926563
24.9973329797784
41.606045222826
53.487264675568
12.3407785931575
15.3468465478504
8.210216692314
-2.59273080892585
-28.8286761077858
-24.3610498918375
